{
  "modelTopology": {
    "class_name": "Sequential",
    "config": {
      "name": "sequential_1",
      "layers": [
        {
          "class_name": "Dense",
          "config": {
            "units": 32,
            "activation": "relu",
            "use_bias": true,
            "kernel_initializer": {
              "class_name": "VarianceScaling",
              "config": {
                "scale": 1,
                "mode": "fan_avg",
                "distribution": "normal",
                "seed": null
              }
            },
            "bias_initializer": {
              "class_name": "Zeros",
              "config": {}
            },
            "kernel_regularizer": null,
            "bias_regularizer": null,
            "activity_regularizer": null,
            "kernel_constraint": null,
            "bias_constraint": null,
            "name": "dense_Dense1",
            "trainable": true,
            "batch_input_shape": [
              null,
              24
            ],
            "dtype": "float32"
          }
        },
        {
          "class_name": "Dense",
          "config": {
            "units": 16,
            "activation": "relu",
            "use_bias": true,
            "kernel_initializer": {
              "class_name": "VarianceScaling",
              "config": {
                "scale": 1,
                "mode": "fan_avg",
                "distribution": "normal",
                "seed": null
              }
            },
            "bias_initializer": {
              "class_name": "Zeros",
              "config": {}
            },
            "kernel_regularizer": null,
            "bias_regularizer": null,
            "activity_regularizer": null,
            "kernel_constraint": null,
            "bias_constraint": null,
            "name": "dense_Dense2",
            "trainable": true
          }
        },
        {
          "class_name": "Dense",
          "config": {
            "units": 3,
            "activation": "softmax",
            "use_bias": true,
            "kernel_initializer": {
              "class_name": "VarianceScaling",
              "config": {
                "scale": 1,
                "mode": "fan_avg",
                "distribution": "normal",
                "seed": null
              }
            },
            "bias_initializer": {
              "class_name": "Zeros",
              "config": {}
            },
            "kernel_regularizer": null,
            "bias_regularizer": null,
            "activity_regularizer": null,
            "kernel_constraint": null,
            "bias_constraint": null,
            "name": "dense_Dense3",
            "trainable": true
          }
        }
      ]
    },
    "keras_version": "tfjs-layers 4.22.0",
    "backend": "tensor_flow.js"
  },
  "weightsManifest": [
    {
      "name": "dense_Dense1/kernel",
      "shape": [
        24,
        32
      ],
      "dtype": "float32",
      "data": [
        -0.449697345495224,
        0.11207304149866104,
        -0.2962093949317932,
        -0.19351302087306976,
        0.2849126160144806,
        -0.5034087300300598,
        -0.2859145998954773,
        -0.048603810369968414,
        -0.4178077280521393,
        0.35469287633895874,
        0.1341051608324051,
        -0.4901150166988373,
        -0.451948881149292,
        0.038569916039705276,
        0.4380579888820648,
        -0.5341763496398926,
        -0.1120857298374176,
        0.48273029923439026,
        -0.21180930733680725,
        -0.2854785621166229,
        0.49773430824279785,
        0.6365081667900085,
        0.14640775322914124,
        -0.08046701550483704,
        0.011278128251433372,
        -0.4608152508735657,
        -0.3578166663646698,
        -0.3388601243495941,
        0.1781085729598999,
        0.19357271492481232,
        -0.09745656698942184,
        -0.0760355144739151,
        0.3192059099674225,
        0.5424938201904297,
        -0.24433240294456482,
        0.6530166864395142,
        0.6096143126487732,
        -0.5200623869895935,
        0.14938795566558838,
        -0.20844101905822754,
        0.25027209520339966,
        0.11164718121290207,
        0.3078848719596863,
        -0.5046532154083252,
        -0.448109894990921,
        0.062030185014009476,
        0.4226759076118469,
        0.11310356855392456,
        0.5821903944015503,
        0.5846011638641357,
        0.08345098793506622,
        -0.28528037667274475,
        -0.053035981953144073,
        -0.11139684170484543,
        0.5484256148338318,
        -0.1956685483455658,
        0.20975519716739655,
        -0.016978781670331955,
        0.3588905334472656,
        0.12004198133945465,
        0.1796141415834427,
        0.38765135407447815,
        -0.09728137403726578,
        0.12252287566661835,
        0.42135611176490784,
        0.038513071835041046,
        -0.15931959450244904,
        -0.05683872103691101,
        0.36899077892303467,
        -0.05958672612905502,
        -0.2265680879354477,
        -0.11561562865972519,
        -0.15430724620819092,
        -0.04741562530398369,
        -0.33644193410873413,
        -0.2546171247959137,
        0.5093027353286743,
        -0.44172659516334534,
        0.02791634574532509,
        -0.04728212207555771,
        -0.278476357460022,
        0.22781994938850403,
        -0.13100938498973846,
        0.004678764380514622,
        -0.1470533162355423,
        -0.24146801233291626,
        0.5559279918670654,
        0.8201802372932434,
        -0.4814852774143219,
        0.09682874381542206,
        -0.3275998532772064,
        -0.5309526920318604,
        -0.20906074345111847,
        -0.31336620450019836,
        0.9198725819587708,
        0.05166883021593094,
        0.09875404089689255,
        -0.05403679236769676,
        0.30190104246139526,
        0.11805231124162674,
        -0.05368853360414505,
        -0.19118474423885345,
        -0.12064682692289352,
        -0.043014924973249435,
        0.08592325448989868,
        0.34841465950012207,
        -0.19783057272434235,
        -0.11905276775360107,
        0.43769222497940063,
        -0.22834409773349762,
        0.17121782898902893,
        0.3044825494289398,
        -0.2186478227376938,
        -0.2624242901802063,
        -0.18125739693641663,
        0.6116831302642822,
        0.49848997592926025,
        -0.2647486627101898,
        0.2654552161693573,
        -0.04566958174109459,
        -0.13510766625404358,
        -0.41126734018325806,
        -0.3528553545475006,
        -0.29723453521728516,
        -0.10680944472551346,
        -0.051834139972925186,
        -0.23656406998634338,
        0.16727693378925323,
        0.3486279249191284,
        0.32460492849349976,
        0.40949398279190063,
        0.40916088223457336,
        -0.3306215703487396,
        0.33280107378959656,
        0.09744424372911453,
        -0.008076283149421215,
        -0.25868460536003113,
        -0.4831942617893219,
        -0.022976478561758995,
        0.6823305487632751,
        -0.4102838933467865,
        0.5819897055625916,
        -0.3748745918273926,
        0.4010246694087982,
        0.3578990697860718,
        0.19463475048542023,
        -0.22529377043247223,
        0.41864126920700073,
        0.3463504910469055,
        0.2659001648426056,
        0.15204362571239471,
        0.0953923761844635,
        0.3684723377227783,
        0.2639797329902649,
        0.012190699577331543,
        0.3933965265750885,
        -0.13355208933353424,
        0.04193544387817383,
        0.20891205966472626,
        0.4502386450767517,
        -0.06150933727622032,
        0.46675458550453186,
        -0.1704082190990448,
        0.35661372542381287,
        1.056327223777771,
        -0.2490047663450241,
        -0.16269327700138092,
        -0.5050860047340393,
        0.3487038314342499,
        0.26331883668899536,
        0.31055694818496704,
        -0.5091327428817749,
        0.020441478118300438,
        -0.2389104962348938,
        0.5361565947532654,
        0.3859415650367737,
        0.1312907487154007,
        0.584362804889679,
        -0.40093687176704407,
        -0.2627606689929962,
        -0.10505426675081253,
        0.034755103290081024,
        0.5835894346237183,
        -0.3269040286540985,
        0.2106916755437851,
        -0.4376668632030487,
        0.18344612419605255,
        -0.08936304599046707,
        -0.09377122670412064,
        0.09505511075258255,
        -0.15282058715820312,
        -0.07601002603769302,
        -0.6919969916343689,
        -0.1839456856250763,
        -0.45277127623558044,
        -0.25852838158607483,
        0.31267881393432617,
        -0.6045610904693604,
        -0.4034448564052582,
        0.14961950480937958,
        -0.12683290243148804,
        0.15048736333847046,
        0.2297772616147995,
        -0.14748477935791016,
        -0.5611935257911682,
        -0.11110860854387283,
        -0.1269899159669876,
        -0.15352174639701843,
        -0.005390623118728399,
        0.3538348972797394,
        0.1853998452425003,
        0.16837641596794128,
        0.23649273812770844,
        0.6370427012443542,
        -0.5626859068870544,
        0.29214203357696533,
        0.11785959452390671,
        -0.7896066308021545,
        0.4865938425064087,
        -0.005833230912685394,
        0.21903882920742035,
        0.5642784833908081,
        -0.3339741826057434,
        -0.4929907023906708,
        -0.40521714091300964,
        -0.21705055236816406,
        0.08498422801494598,
        -0.3479267656803131,
        -0.12281020730733871,
        -0.11810188740491867,
        -0.6125541925430298,
        0.05601375550031662,
        0.05337005853652954,
        0.289201945066452,
        -0.13988986611366272,
        0.2280375063419342,
        0.1378238946199417,
        -0.47901132702827454,
        -0.4061068892478943,
        -0.21816757321357727,
        -0.2639186978340149,
        -0.23473845422267914,
        -0.17715387046337128,
        0.48969799280166626,
        0.07751931250095367,
        -0.46253687143325806,
        -0.0007891966961324215,
        0.35850954055786133,
        0.06547138094902039,
        0.3471623957157135,
        0.0846051350235939,
        0.11421486735343933,
        -0.5359273552894592,
        -0.00393272377550602,
        0.1639353483915329,
        0.3993510603904724,
        -0.22553056478500366,
        -0.3036441504955292,
        0.14817668497562408,
        -0.014214921742677689,
        0.3936297595500946,
        -0.0659390389919281,
        0.2805110812187195,
        0.2454681247472763,
        1.6748868227005005,
        -0.150393545627594,
        0.3105236887931824,
        0.9390122890472412,
        -0.14432312548160553,
        0.2932891249656677,
        0.2021123468875885,
        -0.12178709357976913,
        0.41648682951927185,
        0.3738468289375305,
        0.17470021545886993,
        0.36683353781700134,
        -0.005451931152492762,
        0.2507229447364807,
        -0.2462158352136612,
        -0.32378244400024414,
        0.0626332089304924,
        -0.14109359681606293,
        0.4790266752243042,
        0.3098047971725464,
        0.4185178875923157,
        0.5115869641304016,
        -0.09968501329421997,
        -0.10489971190690994,
        0.3478315770626068,
        -0.10336975753307343,
        0.217962384223938,
        -0.11036553233861923,
        0.2834220230579376,
        0.41038984060287476,
        0.47744327783584595,
        0.5395137071609497,
        0.40413570404052734,
        0.2774624824523926,
        0.5593687891960144,
        0.1018810048699379,
        0.1084115132689476,
        0.09190639853477478,
        0.21035455167293549,
        0.16135238111019135,
        -0.0587986521422863,
        0.2906341254711151,
        0.1891815960407257,
        -0.20241166651248932,
        0.02837713062763214,
        -0.09679029881954193,
        0.0018941184971481562,
        -0.5897181034088135,
        0.42810651659965515,
        -0.8597574234008789,
        0.3838410973548889,
        0.23963339626789093,
        0.1327258050441742,
        0.36689478158950806,
        -0.025932705029845238,
        -0.503760039806366,
        0.19473987817764282,
        0.15651582181453705,
        -0.10358528792858124,
        0.032998695969581604,
        0.32504895329475403,
        0.2890424132347107,
        0.10423122346401215,
        0.20032267272472382,
        -0.25441014766693115,
        0.012212857604026794,
        0.2254522293806076,
        -0.28651300072669983,
        0.07331039756536484,
        -0.03604007512331009,
        0.06546153128147125,
        0.1550809144973755,
        0.0467313677072525,
        0.13920852541923523,
        -0.01743314601480961,
        0.17117983102798462,
        -0.24662552773952484,
        0.051983773708343506,
        0.11222638189792633,
        0.2446746975183487,
        0.19821195304393768,
        -0.039593297988176346,
        -0.023276975378394127,
        -0.15113303065299988,
        0.12027111649513245,
        0.10848694294691086,
        0.07611667364835739,
        -0.07957622408866882,
        0.42924338579177856,
        -0.08845807611942291,
        -0.5623137354850769,
        0.2583370506763458,
        -0.18382535874843597,
        0.23448751866817474,
        -0.00895271822810173,
        0.3603968322277069,
        0.11269558221101761,
        -0.12015380710363388,
        0.007451252080500126,
        -0.4107270836830139,
        0.1699225753545761,
        0.30359145998954773,
        0.11105582118034363,
        0.41193249821662903,
        0.3824217915534973,
        0.07829819619655609,
        0.23129750788211823,
        -0.3019202947616577,
        -0.35149645805358887,
        0.20945754647254944,
        -0.16329972445964813,
        -0.5121692419052124,
        0.00047502582310698926,
        -0.1996879279613495,
        0.10535384714603424,
        0.06300898641347885,
        0.4696713089942932,
        -0.002854233141988516,
        0.2211049497127533,
        -0.11645417660474777,
        -0.4536284804344177,
        -0.5615991950035095,
        -0.16473369300365448,
        0.30411118268966675,
        0.2598732113838196,
        0.08868591487407684,
        0.0715181976556778,
        -0.1875033974647522,
        -0.22616182267665863,
        -0.47605592012405396,
        0.4669245481491089,
        0.145253524184227,
        0.09127277135848999,
        -0.45658987760543823,
        -0.492449551820755,
        0.4409952163696289,
        0.19488145411014557,
        -0.01017725095152855,
        -0.39711305499076843,
        -0.02569708414375782,
        -0.2500240206718445,
        0.32867953181266785,
        0.09061931073665619,
        0.053739387542009354,
        0.10818037390708923,
        -0.5624905228614807,
        0.2740848660469055,
        -0.4185364544391632,
        -0.5435856580734253,
        0.3975515365600586,
        0.006675110664218664,
        -0.542926549911499,
        -0.08928752690553665,
        0.02567974105477333,
        0.3878951370716095,
        0.3218535780906677,
        0.23934495449066162,
        -0.40246260166168213,
        0.03756725788116455,
        -0.03015013411641121,
        0.004390891641378403,
        -0.37927183508872986,
        0.11646760255098343,
        0.426838755607605,
        -0.2748175859451294,
        -0.5898146629333496,
        -0.3286096751689911,
        0.2928074598312378,
        0.1404435932636261,
        0.3894577920436859,
        0.34018826484680176,
        0.37113577127456665,
        -0.33789125084877014,
        0.2256748229265213,
        -0.2644129693508148,
        0.25686269998550415,
        0.2034069001674652,
        0.688453197479248,
        0.13255935907363892,
        -0.4563926160335541,
        0.12456193566322327,
        0.1499960720539093,
        0.10284841060638428,
        0.5105351209640503,
        -0.492416650056839,
        -0.1420603096485138,
        -0.3580889105796814,
        -0.38906916975975037,
        0.4218968451023102,
        -0.20490708947181702,
        0.6175040602684021,
        0.4766475558280945,
        -0.3717477023601532,
        -0.08197750151157379,
        0.3607358932495117,
        0.02322746068239212,
        0.3126964569091797,
        0.4514179527759552,
        -0.4161844551563263,
        -0.37068092823028564,
        0.05542733892798424,
        0.23076292872428894,
        0.36394450068473816,
        -0.5208753347396851,
        -0.3414515554904938,
        -0.13522058725357056,
        -0.039782050997018814,
        -0.5413675308227539,
        0.2886814475059509,
        0.2447342723608017,
        -0.16217443346977234,
        0.15203048288822174,
        0.43531882762908936,
        0.19200076162815094,
        -0.20389851927757263,
        -0.14929579198360443,
        0.5078710913658142,
        0.20973441004753113,
        -0.3257451355457306,
        -0.5620273947715759,
        -0.5022983551025391,
        -0.5301949977874756,
        0.3833354115486145,
        0.1910945475101471,
        -0.5954042673110962,
        0.3320959806442261,
        -0.22441868484020233,
        0.5091943144798279,
        -0.2376520186662674,
        0.018880851566791534,
        0.25074779987335205,
        -0.41005003452301025,
        -0.444532573223114,
        -0.2932218313217163,
        -0.13649484515190125,
        0.3164007067680359,
        -0.21336175501346588,
        0.003849643049761653,
        0.3745490312576294,
        -0.48288166522979736,
        -0.15729254484176636,
        -0.10431893914937973,
        0.09277961403131485,
        -0.030232004821300507,
        -0.21067732572555542,
        -0.36773067712783813,
        -0.31927070021629333,
        -0.4547814726829529,
        -0.5177050828933716,
        -0.07906033098697662,
        -0.24270564317703247,
        0.30340376496315,
        -0.3107430040836334,
        -0.2702227830886841,
        -0.41193675994873047,
        -0.26152104139328003,
        0.22077111899852753,
        0.21055816113948822,
        -0.5046969652175903,
        0.4090120196342468,
        -0.3198835849761963,
        -0.12833309173583984,
        -0.21914127469062805,
        0.4629155993461609,
        -0.2623140215873718,
        -0.14352574944496155,
        0.23496298491954803,
        0.17496976256370544,
        -0.37100663781166077,
        0.5016970038414001,
        -0.22354541718959808,
        -0.5132648348808289,
        -0.07527164369821548,
        -0.06287998706102371,
        -0.21827152371406555,
        -0.09120510518550873,
        -0.31156614422798157,
        -0.04870431497693062,
        -0.04045416787266731,
        -0.10489796847105026,
        -0.478309690952301,
        0.37250056862831116,
        0.2500939667224884,
        -0.5015527009963989,
        -0.16494713723659515,
        0.5297640562057495,
        -0.438274085521698,
        -0.1351008117198944,
        -0.1844073385000229,
        0.5869172811508179,
        -0.43651655316352844,
        -0.46013784408569336,
        -0.3630855977535248,
        -0.25491172075271606,
        0.48173055052757263,
        0.1397542655467987,
        -0.2648427486419678,
        0.23668025434017181,
        0.05085739865899086,
        -0.30934301018714905,
        0.3308400511741638,
        -0.7038413882255554,
        0.10405974835157394,
        0.5980239510536194,
        -0.3959622383117676,
        -0.5275011658668518,
        -0.480975478887558,
        -0.11108426004648209,
        -0.4637651741504669,
        -0.3275930881500244,
        0.6025009155273438,
        -0.4553680717945099,
        0.2591770887374878,
        -0.205363467335701,
        0.5212098360061646,
        -0.17359210550785065,
        0.6261126399040222,
        0.23122969269752502,
        -0.061774130910634995,
        -0.613843560218811,
        -0.557614266872406,
        0.20159971714019775,
        -0.002477779518812895,
        -0.09709054976701736,
        0.5088261365890503,
        -0.31580549478530884,
        0.6626551151275635,
        -0.22440840303897858,
        0.1797528713941574,
        0.06928873062133789,
        -0.381562739610672,
        -0.18299823999404907,
        0.4049666225910187,
        -0.11313006281852722,
        0.6484501957893372,
        -0.08797571063041687,
        -0.27436164021492004,
        0.0056386422365903854,
        -0.22377340495586395,
        -0.22629080712795258,
        0.034490879625082016,
        -0.030109478160738945,
        -0.22342953085899353,
        -0.010291234590113163,
        -0.504038393497467,
        -0.41261306405067444,
        0.22598224878311157,
        0.21291710436344147,
        -0.07002998888492584,
        -0.18480585515499115,
        -0.03758276626467705,
        0.04334118962287903,
        0.22173789143562317,
        -0.367754727602005,
        -0.015475472435355186,
        0.14102387428283691,
        -0.24105986952781677,
        -0.6535466313362122,
        -0.30627238750457764,
        0.22930654883384705,
        0.08455125987529755,
        0.12938818335533142,
        -0.13391800224781036,
        -0.041035246104002,
        0.12186112254858017,
        -0.7420175075531006,
        -0.5999248623847961,
        0.016514746472239494,
        -0.05069031938910484,
        0.524952232837677,
        -0.0635911077260971,
        -0.056620072573423386,
        0.02823730744421482,
        0.1767406463623047,
        -0.3661634624004364,
        0.3423252999782562,
        0.1462314873933792,
        -0.5117892026901245,
        0.08376018702983856,
        0.13840101659297943,
        0.17733515799045563,
        -0.1747005134820938,
        -0.19029611349105835,
        0.16489996016025543,
        0.46712392568588257,
        -0.05359160155057907,
        0.2267778366804123,
        0.22954605519771576,
        -0.23698647320270538,
        -0.4184235632419586,
        -0.6223667860031128,
        0.44993430376052856,
        0.06544481217861176,
        0.09374568611383438,
        0.31491804122924805,
        0.41060227155685425,
        -0.06240769475698471,
        -0.7047727704048157,
        -0.11383546888828278,
        -0.616460382938385,
        -0.03668789938092232,
        -0.057370126247406006,
        0.2864692509174347,
        0.3826216757297516,
        0.4662819504737854,
        0.252102255821228,
        -0.28460320830345154,
        0.07520700991153717,
        0.19511081278324127,
        0.05316171050071716,
        -0.04886814206838608,
        -0.033731162548065186,
        0.0006744969869032502,
        0.018752839416265488,
        -0.038471102714538574,
        -0.13670188188552856,
        0.07460173964500427,
        0.17203082144260406,
        0.29429638385772705,
        -0.15026089549064636,
        -0.028769200667738914,
        0.22496198117733002,
        -0.23335030674934387,
        0.2796870470046997,
        0.058220699429512024,
        0.13981737196445465,
        -0.11140155792236328,
        0.12350215017795563,
        0.33663496375083923,
        -0.09243983030319214,
        0.14053907990455627,
        -0.060301490128040314,
        0.06361494958400726,
        0.06448117643594742,
        -0.23768967390060425,
        0.29979220032691956,
        0.32586726546287537,
        -0.3173907995223999,
        -0.06744716316461563,
        0.026254616677761078,
        0.03493998572230339,
        -0.5551348924636841,
        -0.4230431914329529,
        -0.15983326733112335,
        0.6707850694656372,
        -0.12055414915084839,
        0.4417080581188202,
        -0.12445680797100067,
        -0.10396959632635117,
        -0.3738955855369568,
        0.3477444350719452,
        -0.2439853698015213,
        0.1692814975976944,
        0.39443060755729675,
        -0.62598717212677,
        -0.17944473028182983,
        0.19816546142101288,
        0.24171140789985657,
        0.054112281650304794,
        -0.348858505487442,
        -0.2238238900899887,
        0.2225741446018219,
        0.18361595273017883,
        0.17789937555789948,
        0.5959208607673645,
        -0.5309231281280518,
        0.23153206706047058,
        0.44764265418052673,
        0.3804413080215454,
        0.2787318825721741,
        0.0791153758764267,
        -0.469534695148468,
        0.12680841982364655,
        0.06400224566459656,
        0.13259656727313995,
        0.2842719852924347,
        -0.27950191497802734,
        0.7066003084182739,
        -0.4398425817489624,
        -0.5647271275520325,
        -0.27429795265197754,
        0.08160451799631119,
        -0.581642746925354,
        -0.3746659457683563,
        0.45167434215545654,
        -0.3150206506252289,
        0.072536900639534,
        0.2267080694437027,
        0.2543162703514099,
        -0.25296205282211304,
        -0.018781958147883415,
        0.28434228897094727,
        -0.23717272281646729,
        0.18637286126613617,
        0.42807620763778687,
        -0.4820806086063385,
        -0.5065751671791077,
        -0.12456147372722626,
        -0.4317561686038971,
        -0.277038037776947,
        -0.14966411888599396,
        -0.3446546196937561,
        0.34482336044311523,
        -0.2746316194534302
      ]
    },
    {
      "name": "dense_Dense1/bias",
      "shape": [
        32
      ],
      "dtype": "float32",
      "data": [
        0.05078418552875519,
        0.030455559492111206,
        -0.06889107078313828,
        -0.006904583889991045,
        0.08404245972633362,
        0.003025325480848551,
        -0.14930933713912964,
        0.0010297414846718311,
        -0.017549697309732437,
        -0.007639947347342968,
        -0.06567712873220444,
        -0.04028972238302231,
        0.014001295901834965,
        -0.03101574257016182,
        0.05501208454370499,
        -0.03765737637877464,
        -0.090581975877285,
        -0.0063306172378361225,
        0.0027929015923291445,
        -0.1828242838382721,
        -0.05308379977941513,
        0.06401795148849487,
        0.035405173897743225,
        0.1466173678636551,
        0.0022488306276500225,
        0.14774833619594574,
        0.04170972853899002,
        -0.08294079452753067,
        0.0230203028768301,
        0.09672264754772186,
        0.017675921320915222,
        -0.00968101341277361
      ]
    },
    {
      "name": "dense_Dense2/kernel",
      "shape": [
        32,
        16
      ],
      "dtype": "float32",
      "data": [
        -0.30915674567222595,
        -0.4656837582588196,
        -0.17440572381019592,
        0.49895307421684265,
        -0.3388524651527405,
        -0.39263996481895447,
        -0.31179746985435486,
        0.8957075476646423,
        -0.11849703639745712,
        -0.6719165444374084,
        -0.2103138267993927,
        0.1991739720106125,
        -0.24795417487621307,
        -0.22120210528373718,
        0.039997126907110214,
        0.323390930891037,
        -0.18943139910697937,
        -0.051973842084407806,
        0.46502140164375305,
        0.35740914940834045,
        -0.47674500942230225,
        0.15267808735370636,
        0.15822160243988037,
        -0.012730183079838753,
        -0.2980140745639801,
        0.4286089241504669,
        -0.16755133867263794,
        0.5968248248100281,
        0.041193947196006775,
        -0.11109889298677444,
        0.5336986184120178,
        -0.08352931588888168,
        0.17462681233882904,
        0.11963635683059692,
        0.1460055112838745,
        -0.18057745695114136,
        -0.015194248408079147,
        0.2117622345685959,
        0.24422809481620789,
        0.17630456387996674,
        0.31819504499435425,
        0.34841760993003845,
        0.04429696500301361,
        0.6154780387878418,
        0.021167075261473656,
        -0.03954115882515907,
        0.43383359909057617,
        -0.35813164710998535,
        0.18195973336696625,
        0.4151899516582489,
        -0.23323729634284973,
        0.009577732533216476,
        0.10104553401470184,
        0.11820586025714874,
        0.5154719352722168,
        -0.5446479320526123,
        -0.3279360234737396,
        -0.5559967756271362,
        0.3410915732383728,
        -0.030083375051617622,
        0.45778876543045044,
        -0.2707407474517822,
        0.004562890622764826,
        -0.17770794034004211,
        -0.10058575123548508,
        0.1536436378955841,
        0.2841768264770508,
        0.7063178420066833,
        0.496178537607193,
        0.05560419708490372,
        -0.05139851197600365,
        0.7957600355148315,
        -0.34898900985717773,
        -0.06050489470362663,
        -0.08544909209012985,
        0.1639256775379181,
        0.31521257758140564,
        -0.02493150718510151,
        -0.011568065732717514,
        0.04038084298372269,
        0.10378968715667725,
        0.016176924109458923,
        -0.16828382015228271,
        -0.35423120856285095,
        -0.019720640033483505,
        -0.5627236366271973,
        -0.08032535016536713,
        -0.10203593969345093,
        -0.06007421389222145,
        -0.0907767042517662,
        -0.10507998615503311,
        0.6243835091590881,
        -0.19793599843978882,
        -0.2298639714717865,
        0.9483608603477478,
        -0.10214194655418396,
        -0.02084934338927269,
        0.04647322744131088,
        -0.021192429587244987,
        0.36827030777931213,
        0.01151442900300026,
        0.1432788223028183,
        -0.41304513812065125,
        0.5390745997428894,
        -0.04551944509148598,
        -0.4666956067085266,
        0.04158167913556099,
        -0.4028708040714264,
        -0.012461666017770767,
        -0.41098466515541077,
        0.19807657599449158,
        0.3733474612236023,
        0.14417360723018646,
        -0.040137406438589096,
        -0.3612787425518036,
        -0.37119877338409424,
        0.13745969533920288,
        -0.3357471823692322,
        -0.1792246550321579,
        0.3701838254928589,
        -0.13902664184570312,
        0.329123854637146,
        -0.2133617103099823,
        -0.46173521876335144,
        0.3963998258113861,
        0.1901218295097351,
        -0.0820789784193039,
        0.3083482086658478,
        -0.3628370463848114,
        0.012253360822796822,
        -0.6144037246704102,
        -0.027383344247937202,
        0.21672779321670532,
        -0.06913740187883377,
        0.22997452318668365,
        -0.23516827821731567,
        -0.23912321031093597,
        0.01846478506922722,
        0.48440009355545044,
        -0.4226613938808441,
        0.087458536028862,
        0.25944268703460693,
        -0.17891040444374084,
        0.2872644364833832,
        -0.35978180170059204,
        -0.24022622406482697,
        -0.09998553991317749,
        -0.11022751033306122,
        -0.19496400654315948,
        -0.1617729365825653,
        0.1625632345676422,
        -0.6367112994194031,
        0.03531983122229576,
        0.33955612778663635,
        0.04056733846664429,
        0.17468063533306122,
        -0.0019270980264991522,
        -0.24453780055046082,
        0.42291176319122314,
        -0.00892727356404066,
        -0.05689987540245056,
        0.3280285894870758,
        0.06943758577108383,
        0.20604485273361206,
        0.21584446728229523,
        -0.23725204169750214,
        -0.1801181435585022,
        0.3803744614124298,
        -0.30509713292121887,
        -0.11452420800924301,
        -0.2839483320713043,
        0.004639367572963238,
        0.1493726521730423,
        -0.19746044278144836,
        -0.060342852026224136,
        0.25563615560531616,
        0.36382168531417847,
        0.2895147204399109,
        -0.2816193997859955,
        0.11272037774324417,
        -0.5954821109771729,
        -0.4109836220741272,
        0.7183358073234558,
        0.08280286937952042,
        0.11373090744018555,
        -0.011662072502076626,
        0.3315996527671814,
        -0.19997018575668335,
        0.6446743607521057,
        -0.0697903037071228,
        -0.5315082669258118,
        0.2584889233112335,
        -0.3279944360256195,
        -0.27991703152656555,
        0.26704737544059753,
        0.013356508687138557,
        -0.07221582531929016,
        -0.18884579837322235,
        -0.06937190890312195,
        0.04504147171974182,
        -0.017372915521264076,
        0.4360441267490387,
        -0.27240440249443054,
        0.2851906418800354,
        -0.36461275815963745,
        -0.18664252758026123,
        0.012216276489198208,
        -0.29008999466896057,
        -0.2257361263036728,
        0.4611469507217407,
        -0.0911954790353775,
        0.5067195296287537,
        0.43649280071258545,
        -0.013041902333498001,
        0.15700455009937286,
        1.1764204502105713,
        0.31858009099960327,
        -0.6804068684577942,
        -0.13183560967445374,
        -0.3710479438304901,
        0.11269467324018478,
        -0.10298899561166763,
        -0.14573697745800018,
        0.6143757700920105,
        -0.31650683283805847,
        -0.2767639458179474,
        -0.1635553538799286,
        -0.02062559686601162,
        -0.30457553267478943,
        -0.05266910791397095,
        -0.1463778167963028,
        -0.11562056839466095,
        0.2517675459384918,
        -0.21069735288619995,
        0.1775500327348709,
        0.5911267995834351,
        -0.5373311042785645,
        0.18625375628471375,
        1.0340365171432495,
        -0.41073882579803467,
        0.3346441984176636,
        0.07729599624872208,
        0.04169471934437752,
        -0.5671887993812561,
        -0.04870268702507019,
        0.074821338057518,
        0.734438419342041,
        -0.1550035923719406,
        -0.23771917819976807,
        -0.07090097665786743,
        0.3883800208568573,
        0.08371230214834213,
        0.3354026973247528,
        -0.0050401389598846436,
        -0.11072368174791336,
        0.17306649684906006,
        0.4212731122970581,
        0.4939163029193878,
        0.10502895712852478,
        -0.13669784367084503,
        0.06782281398773193,
        -0.012736069038510323,
        0.3057639002799988,
        -0.06632719188928604,
        -0.1807398498058319,
        -0.33766764402389526,
        -0.03378314524888992,
        0.2019702047109604,
        0.16162030398845673,
        0.011837199330329895,
        -0.15363706648349762,
        0.00021696806652471423,
        0.04167208448052406,
        0.24678973853588104,
        -0.021771226078271866,
        0.3085409998893738,
        0.39766231179237366,
        0.04166650399565697,
        0.3967103362083435,
        -0.12388882040977478,
        -0.3699132204055786,
        0.0699634999036789,
        -0.15524904429912567,
        0.2119184136390686,
        -0.05077003315091133,
        -0.35537242889404297,
        0.3182898759841919,
        0.2406415194272995,
        -0.3561125695705414,
        0.0030521713197231293,
        -0.21681776642799377,
        0.047125253826379776,
        0.5185676217079163,
        0.04998931288719177,
        0.3736385405063629,
        0.028398161754012108,
        -0.06675947457551956,
        0.3820613920688629,
        0.2878277003765106,
        -0.019805990159511566,
        -0.08552543073892593,
        -0.3909488320350647,
        -0.08019599318504333,
        0.26155781745910645,
        0.1256294846534729,
        -0.09676610678434372,
        -0.42952877283096313,
        -0.4135969281196594,
        0.1561424434185028,
        -0.1750408560037613,
        0.5601966977119446,
        0.1110113188624382,
        -0.3032967150211334,
        0.21872606873512268,
        0.3207531273365021,
        -0.28089967370033264,
        0.8922644853591919,
        0.20762304961681366,
        -0.24748997390270233,
        -0.23995007574558258,
        -0.016123991459608078,
        -0.1770220547914505,
        0.317084938287735,
        0.03539340943098068,
        0.0008193660760298371,
        -0.30920785665512085,
        -0.05314411222934723,
        0.27654245495796204,
        -0.1583448201417923,
        0.060448288917541504,
        -0.08723567426204681,
        0.43640631437301636,
        -0.008224526420235634,
        -0.009295254945755005,
        0.24035026133060455,
        -0.19859656691551208,
        0.0691760703921318,
        0.5334815979003906,
        -1.0347179174423218,
        -0.7519012093544006,
        0.12498728930950165,
        -0.1883140653371811,
        0.9472131133079529,
        -0.40471741557121277,
        -0.14336036145687103,
        -0.10011766850948334,
        0.15185420215129852,
        -0.28054842352867126,
        0.5143812894821167,
        -0.0759614109992981,
        -0.20175226032733917,
        -0.15878276526927948,
        -0.11964668333530426,
        -0.128972589969635,
        0.2885255217552185,
        0.29135099053382874,
        -0.2501271963119507,
        0.18902431428432465,
        -0.1509144902229309,
        0.209672749042511,
        -0.18333213031291962,
        -0.028830207884311676,
        -0.23537378013134003,
        0.004382290877401829,
        -0.053009625524282455,
        0.0773923471570015,
        0.45875388383865356,
        0.14707434177398682,
        0.02162766084074974,
        0.06172161549329758,
        0.9171819686889648,
        0.6382328271865845,
        -0.38071146607398987,
        -0.22320519387722015,
        -0.5110762715339661,
        1.455579161643982,
        -0.06817954033613205,
        -0.8399063944816589,
        -0.26610589027404785,
        0.3707059323787689,
        -0.41224244236946106,
        -0.0193597711622715,
        0.26831212639808655,
        -0.3023976683616638,
        0.0752144455909729,
        0.06213807687163353,
        0.06114853173494339,
        0.13748371601104736,
        -0.015569944866001606,
        -0.28503111004829407,
        0.2145712524652481,
        0.38539716601371765,
        -0.1528921276330948,
        -0.29612988233566284,
        0.14498652517795563,
        0.08512520045042038,
        0.0898696705698967,
        -0.025185417383909225,
        -0.32142457365989685,
        0.3746185898780823,
        0.23230023682117462,
        -0.568303644657135,
        -0.34372881054878235,
        -0.5837820172309875,
        0.02787851169705391,
        -0.14383167028427124,
        1.0553553104400635,
        -0.5246394872665405,
        -0.20485921204090118,
        0.2814529538154602,
        0.5345210433006287,
        0.2752067744731903,
        1.076318621635437,
        -0.28844019770622253,
        -0.3907437324523926,
        -0.049157653003931046,
        0.09241890162229538,
        0.3332044184207916,
        0.055100876837968826,
        0.46172457933425903,
        0.22677764296531677,
        0.14270034432411194,
        0.05980902537703514,
        0.43037545680999756,
        0.08959668129682541,
        0.2350437045097351,
        0.07342088222503662,
        -0.24187248945236206,
        0.30805718898773193,
        0.043390754610300064,
        -0.4302881360054016,
        0.08889190107584,
        0.03806939721107483,
        0.07077805697917938,
        0.03608578443527222,
        -0.05130220204591751,
        0.16404187679290771,
        -0.5046572089195251,
        0.3257600665092468,
        0.4963501989841461,
        -0.2981516718864441,
        0.3928162753582001,
        0.12610942125320435,
        -0.012038548476994038,
        0.3107722997665405,
        -0.017464084550738335,
        0.019045688211917877,
        0.0723787248134613,
        0.09491411596536636,
        0.44332364201545715,
        0.17022670805454254,
        0.5279937386512756,
        0.04260779917240143,
        -0.08912872523069382,
        -0.061808992177248,
        0.42723405361175537,
        0.05478895828127861,
        -0.37488025426864624,
        -0.0938761830329895,
        -0.40474626421928406,
        0.3364550769329071,
        -0.1049649640917778,
        0.013982538133859634,
        0.2873980402946472,
        0.044361937791109085,
        0.13522104918956757,
        0.10612805932760239,
        0.45832231640815735,
        0.10528430342674255,
        -0.08279351145029068,
        -0.044748373329639435,
        0.031105900183320045,
        -0.17730745673179626,
        -0.09390172362327576,
        0.24585910141468048,
        0.1193898543715477,
        0.3052704334259033,
        -0.21397460997104645,
        -0.6367624998092651,
        0.4098685681819916,
        -0.07020242512226105,
        -0.2248656302690506,
        0.4449303150177002,
        -0.06403069943189621,
        -0.3962233364582062,
        -0.04890584573149681,
        -0.06438317894935608,
        -0.21636123955249786,
        0.016455499455332756,
        0.20787964761257172,
        0.08689124882221222,
        0.46521925926208496,
        -0.1795576959848404,
        0.3078320026397705,
        0.8123983144760132,
        -0.24159225821495056,
        0.5823488831520081,
        -0.46210718154907227,
        -0.41325968503952026,
        -0.5998732447624207,
        0.05065760016441345,
        0.06234950199723244,
        0.504463255405426,
        -0.3742789924144745,
        -0.13365060091018677,
        -0.11523988097906113,
        0.7083251476287842,
        0.38100793957710266,
        0.36658385396003723,
        0.11035832017660141,
        -0.07539195567369461,
        -0.332412451505661
      ]
    },
    {
      "name": "dense_Dense2/bias",
      "shape": [
        16
      ],
      "dtype": "float32",
      "data": [
        -0.19338510930538177,
        0.016000574454665184,
        0.1731683313846588,
        0.11983367800712585,
        0.07305626571178436,
        -0.20676779747009277,
        0.11831837147474289,
        0.0723281279206276,
        -0.08438030630350113,
        0.05646166205406189,
        -0.02052796632051468,
        0.1147327870130539,
        0.10979686677455902,
        -0.11160276085138321,
        -0.09212952107191086,
        0.10143263638019562
      ]
    },
    {
      "name": "dense_Dense3/kernel",
      "shape": [
        16,
        3
      ],
      "dtype": "float32",
      "data": [
        -0.39934802055358887,
        0.20743714272975922,
        -0.017111994326114655,
        -0.5425489544868469,
        0.09264717251062393,
        0.6696644425392151,
        0.4437713623046875,
        -0.8128199577331543,
        -0.4950013756752014,
        0.7835022807121277,
        -1.2555265426635742,
        0.15388056635856628,
        -0.08665072917938232,
        0.22126226127147675,
        0.7456110715866089,
        0.17689019441604614,
        -0.19214650988578796,
        0.35198134183883667,
        -1.1836516857147217,
        0.32053637504577637,
        -0.2075357735157013,
        0.2248193770647049,
        -1.0846450328826904,
        0.32584577798843384,
        -0.20417681336402893,
        0.40080904960632324,
        -0.2909471392631531,
        -0.30230259895324707,
        0.2815718352794647,
        0.28400206565856934,
        -0.9039930105209351,
        0.1917310208082199,
        -0.171319380402565,
        0.5982961654663086,
        0.2619949281215668,
        -0.5570197701454163,
        -0.6938218474388123,
        0.4847993850708008,
        0.5154855251312256,
        -0.385157972574234,
        -0.27865174412727356,
        -0.3026166558265686,
        0.3488147258758545,
        0.3005748689174652,
        -0.7544072270393372,
        -0.48164716362953186,
        -0.6392814517021179,
        0.008472554385662079
      ]
    },
    {
      "name": "dense_Dense3/bias",
      "shape": [
        3
      ],
      "dtype": "float32",
      "data": [
        0.03440738841891289,
        -0.09723979979753494,
        0.06557725369930267
      ]
    }
  ]
}